digraph Tree {
node [shape=box] ;
0 [label="weeks worked in year <= 26.5\nmse = 0.25\nsamples = 374282\nvalue = 0.5"] ;
1 [label="dividends from stocks <= 1500.5\nmse = 0.083\nsamples = 121480\nvalue = 0.092"] ;
0 -> 1 [labeldistance=2.5, labelangle=45, headlabel="True"] ;
2 [label="capital gains <= 5591.0\nmse = 0.052\nsamples = 114565\nvalue = 0.055"] ;
1 -> 2 ;
3 [label="tax filer stat_ Nonfiler <= 0.5\nmse = 0.044\nsamples = 113326\nvalue = 0.046"] ;
2 -> 3 ;
4 [label="mse = 0.116\nsamples = 38889\nvalue = 0.133"] ;
3 -> 4 ;
5 [label="mse = 0.001\nsamples = 74437\nvalue = 0.001"] ;
3 -> 5 ;
6 [label="sex_ Female <= 0.5\nmse = 0.141\nsamples = 1239\nvalue = 0.831"] ;
2 -> 6 ;
7 [label="mse = 0.088\nsamples = 1052\nvalue = 0.902"] ;
6 -> 7 ;
8 [label="mse = 0.245\nsamples = 187\nvalue = 0.428"] ;
6 -> 8 ;
9 [label="major industry code_ Not in universe or children <= 0.5\nmse = 0.209\nsamples = 6915\nvalue = 0.702"] ;
1 -> 9 ;
10 [label="class of worker_ Private <= 0.5\nmse = 0.048\nsamples = 3286\nvalue = 0.95"] ;
9 -> 10 ;
11 [label="mse = 0.019\nsamples = 3119\nvalue = 0.98"] ;
10 -> 11 ;
12 [label="mse = 0.236\nsamples = 167\nvalue = 0.383"] ;
10 -> 12 ;
13 [label="dividends from stocks <= 9688.5\nmse = 0.249\nsamples = 3629\nvalue = 0.477"] ;
9 -> 13 ;
14 [label="mse = 0.188\nsamples = 2147\nvalue = 0.252"] ;
13 -> 14 ;
15 [label="mse = 0.158\nsamples = 1482\nvalue = 0.804"] ;
13 -> 15 ;
16 [label="sex_ Female <= 0.5\nmse = 0.211\nsamples = 252802\nvalue = 0.696"] ;
0 -> 16 [labeldistance=2.5, labelangle=-45, headlabel="False"] ;
17 [label="education_ High school graduate <= 0.5\nmse = 0.153\nsamples = 203724\nvalue = 0.812"] ;
16 -> 17 ;
18 [label="marital stat_ Never married <= 0.5\nmse = 0.115\nsamples = 184135\nvalue = 0.868"] ;
17 -> 18 ;
19 [label="mse = 0.091\nsamples = 174328\nvalue = 0.899"] ;
18 -> 19 ;
20 [label="mse = 0.213\nsamples = 9807\nvalue = 0.307"] ;
18 -> 20 ;
21 [label="age <= 36.5\nmse = 0.206\nsamples = 19589\nvalue = 0.29"] ;
17 -> 21 ;
22 [label="mse = 0.112\nsamples = 8086\nvalue = 0.129"] ;
21 -> 22 ;
23 [label="mse = 0.241\nsamples = 11503\nvalue = 0.404"] ;
21 -> 23 ;
24 [label="dividends from stocks <= 100.5\nmse = 0.169\nsamples = 49078\nvalue = 0.215"] ;
16 -> 24 ;
25 [label="capital gains <= 9474.0\nmse = 0.137\nsamples = 42595\nvalue = 0.164"] ;
24 -> 25 ;
26 [label="mse = 0.128\nsamples = 41796\nvalue = 0.15"] ;
25 -> 26 ;
27 [label="mse = 0.08\nsamples = 799\nvalue = 0.912"] ;
25 -> 27 ;
28 [label="major occupation code_ Adm support including clerical <= 0.5\nmse = 0.248\nsamples = 6483\nvalue = 0.549"] ;
24 -> 28 ;
29 [label="mse = 0.235\nsamples = 5600\nvalue = 0.622"] ;
28 -> 29 ;
30 [label="mse = 0.079\nsamples = 883\nvalue = 0.086"] ;
28 -> 30 ;
}