digraph Tree {
node [shape=box] ;
0 [label="capital gains <= 7364.0\nmse = 0.058\nsamples = 199523\nvalue = 0.062"] ;
1 [label="weeks worked in year <= 47.5\nmse = 0.05\nsamples = 196788\nvalue = 0.053"] ;
0 -> 1 [labeldistance=2.5, labelangle=45, headlabel="True"] ;
2 [label="dividends from stocks <= 12689.5\nmse = 0.01\nsamples = 123316\nvalue = 0.01"] ;
1 -> 2 ;
3 [label="dividends from stocks <= 87.5\nmse = 0.009\nsamples = 123051\nvalue = 0.009"] ;
2 -> 3 ;
4 [label="capital losses <= 1881.5\nmse = 0.006\nsamples = 116661\nvalue = 0.006"] ;
3 -> 4 ;
5 [label="weeks worked in year <= 23.5\nmse = 0.005\nsamples = 116284\nvalue = 0.005"] ;
4 -> 5 ;
6 [label="tax filer stat_ Nonfiler <= 0.5\nmse = 0.003\nsamples = 101695\nvalue = 0.003"] ;
5 -> 6 ;
7 [label="detailed household summary in household_ Householder <= 0.5\nmse = 0.009\nsamples = 27706\nvalue = 0.009"] ;
6 -> 7 ;
8 [label="sex_ Female <= 0.5\nmse = 0.004\nsamples = 16138\nvalue = 0.004"] ;
7 -> 8 ;
9 [label="marital stat_ Married-civilian spouse present <= 0.5\nmse = 0.008\nsamples = 2925\nvalue = 0.009"] ;
8 -> 9 ;
10 [label="education_ Some college but no degree <= 0.5\nmse = 0.002\nsamples = 1962\nvalue = 0.002"] ;
9 -> 10 ;
11 [label="mse = 0.0\nsamples = 1401\nvalue = 0.0"] ;
10 -> 11 ;
12 [label="Unknown 1 <= 1795.76\nmse = 0.005\nsamples = 561\nvalue = 0.005"] ;
10 -> 12 ;
13 [label="mse = 0.008\nsamples = 250\nvalue = 0.008"] ;
12 -> 13 ;
14 [label="mse = 0.003\nsamples = 311\nvalue = 0.003"] ;
12 -> 14 ;
15 [label="age <= 64.5\nmse = 0.022\nsamples = 963\nvalue = 0.023"] ;
9 -> 15 ;
16 [label="Unknown 1 <= 1602.11\nmse = 0.017\nsamples = 576\nvalue = 0.017"] ;
15 -> 16 ;
17 [label="mse = 0.023\nsamples = 303\nvalue = 0.023"] ;
16 -> 17 ;
18 [label="mse = 0.011\nsamples = 273\nvalue = 0.011"] ;
16 -> 18 ;
19 [label="mse = 0.03\nsamples = 387\nvalue = 0.031"] ;
15 -> 19 ;
20 [label="class of worker_ Self-employed-not incorporated <= 0.5\nmse = 0.002\nsamples = 13213\nvalue = 0.002"] ;
8 -> 20 ;
21 [label="age <= 79.5\nmse = 0.002\nsamples = 12904\nvalue = 0.002"] ;
20 -> 21 ;
22 [label="Unknown 1 <= 4042.51\nmse = 0.002\nsamples = 12520\nvalue = 0.002"] ;
21 -> 22 ;
23 [label="weeks worked in year <= 17.5\nmse = 0.002\nsamples = 12270\nvalue = 0.002"] ;
22 -> 23 ;
24 [label="education_ Bachelors degree(BA AB BS) <= 0.5\nmse = 0.001\nsamples = 11515\nvalue = 0.001"] ;
23 -> 24 ;
25 [label="Unknown 1 <= 317.24\nmse = 0.001\nsamples = 10504\nvalue = 0.001"] ;
24 -> 25 ;
26 [label="mse = 0.007\nsamples = 269\nvalue = 0.007"] ;
25 -> 26 ;
27 [label="mse = 0.001\nsamples = 10235\nvalue = 0.001"] ;
25 -> 27 ;
28 [label="age <= 49.5\nmse = 0.005\nsamples = 1011\nvalue = 0.005"] ;
24 -> 28 ;
29 [label="mse = 0.001\nsamples = 719\nvalue = 0.001"] ;
28 -> 29 ;
30 [label="mse = 0.014\nsamples = 292\nvalue = 0.014"] ;
28 -> 30 ;
31 [label="tax filer stat_ Joint both under 65 <= 0.5\nmse = 0.005\nsamples = 755\nvalue = 0.005"] ;
23 -> 31 ;
32 [label="mse = 0.0\nsamples = 325\nvalue = 0.0"] ;
31 -> 32 ;
33 [label="mse = 0.009\nsamples = 430\nvalue = 0.009"] ;
31 -> 33 ;
34 [label="mse = 0.008\nsamples = 250\nvalue = 0.008"] ;
22 -> 34 ;
35 [label="mse = 0.013\nsamples = 384\nvalue = 0.013"] ;
21 -> 35 ;
36 [label="mse = 0.019\nsamples = 309\nvalue = 0.019"] ;
20 -> 36 ;
37 [label="education_ Masters degree(MA MS MEng MEd MSW MBA) <= 0.5\nmse = 0.017\nsamples = 11568\nvalue = 0.017"] ;
7 -> 37 ;
38 [label="education_ Bachelors degree(BA AB BS) <= 0.5\nmse = 0.015\nsamples = 11192\nvalue = 0.015"] ;
37 -> 38 ;
39 [label="capital gains <= 2910.5\nmse = 0.013\nsamples = 10216\nvalue = 0.013"] ;
38 -> 39 ;
40 [label="own business or self employed_0 <= 0.5\nmse = 0.012\nsamples = 9957\nvalue = 0.012"] ;
39 -> 40 ;
41 [label="mse = 0.033\nsamples = 405\nvalue = 0.035"] ;
40 -> 41 ;
42 [label="age <= 41.5\nmse = 0.011\nsamples = 9552\nvalue = 0.011"] ;
40 -> 42 ;
43 [label="citizenship_ Native- Born in the United States <= 0.5\nmse = 0.003\nsamples = 1476\nvalue = 0.003"] ;
42 -> 43 ;
44 [label="mse = 0.01\nsamples = 287\nvalue = 0.01"] ;
43 -> 44 ;
45 [label="num persons worked for employer <= 2.5\nmse = 0.002\nsamples = 1189\nvalue = 0.002"] ;
43 -> 45 ;
46 [label="mse = 0.0\nsamples = 773\nvalue = 0.0"] ;
45 -> 46 ;
47 [label="mse = 0.005\nsamples = 416\nvalue = 0.005"] ;
45 -> 47 ;
48 [label="marital stat_ Divorced <= 0.5\nmse = 0.012\nsamples = 8076\nvalue = 0.012"] ;
42 -> 48 ;
49 [label="education_ 10th grade <= 0.5\nmse = 0.011\nsamples = 7464\nvalue = 0.011"] ;
48 -> 49 ;
50 [label="mse = 0.012\nsamples = 6968\nvalue = 0.012"] ;
49 -> 50 ;
51 [label="mse = 0.0\nsamples = 496\nvalue = 0.0"] ;
49 -> 51 ;
52 [label="age <= 62.5\nmse = 0.024\nsamples = 612\nvalue = 0.025"] ;
48 -> 52 ;
53 [label="mse = 0.038\nsamples = 254\nvalue = 0.039"] ;
52 -> 53 ;
54 [label="mse = 0.014\nsamples = 358\nvalue = 0.014"] ;
52 -> 54 ;
55 [label="mse = 0.055\nsamples = 259\nvalue = 0.058"] ;
39 -> 55 ;
56 [label="age <= 49.5\nmse = 0.038\nsamples = 976\nvalue = 0.04"] ;
38 -> 56 ;
57 [label="mse = 0.017\nsamples = 342\nvalue = 0.018"] ;
56 -> 57 ;
58 [label="age <= 68.5\nmse = 0.049\nsamples = 634\nvalue = 0.052"] ;
56 -> 58 ;
59 [label="mse = 0.072\nsamples = 293\nvalue = 0.078"] ;
58 -> 59 ;
60 [label="mse = 0.028\nsamples = 341\nvalue = 0.029"] ;
58 -> 60 ;
61 [label="mse = 0.057\nsamples = 376\nvalue = 0.061"] ;
37 -> 61 ;
62 [label="education_ Bachelors degree(BA AB BS) <= 0.5\nmse = 0.0\nsamples = 73989\nvalue = 0.0"] ;
6 -> 62 ;
63 [label="fill inc questionnaire for veteran's admin_ No <= 0.5\nmse = 0.0\nsamples = 73244\nvalue = 0.0"] ;
62 -> 63 ;
64 [label="detailed household summary in household_ Householder <= 0.5\nmse = 0.0\nsamples = 72931\nvalue = 0.0"] ;
63 -> 64 ;
65 [label="major occupation code_ Adm support including clerical <= 0.5\nmse = 0.0\nsamples = 63089\nvalue = 0.0"] ;
64 -> 65 ;
66 [label="age <= 30.5\nmse = 0.0\nsamples = 62832\nvalue = 0.0"] ;
65 -> 66 ;
67 [label="mse = 0.0\nsamples = 57867\nvalue = 0.0"] ;
66 -> 67 ;
68 [label="country of birth mother_ ? <= 0.5\nmse = 0.001\nsamples = 4965\nvalue = 0.001"] ;
66 -> 68 ;
69 [label="education_ Some college but no degree <= 0.5\nmse = 0.0\nsamples = 4696\nvalue = 0.0"] ;
68 -> 69 ;
70 [label="marital stat_ Divorced <= 0.5\nmse = 0.0\nsamples = 4311\nvalue = 0.0"] ;
69 -> 70 ;
71 [label="mse = 0.0\nsamples = 3891\nvalue = 0.0"] ;
70 -> 71 ;
72 [label="mse = 0.002\nsamples = 420\nvalue = 0.002"] ;
70 -> 72 ;
73 [label="mse = 0.003\nsamples = 385\nvalue = 0.003"] ;
69 -> 73 ;
74 [label="mse = 0.004\nsamples = 269\nvalue = 0.004"] ;
68 -> 74 ;
75 [label="mse = 0.004\nsamples = 257\nvalue = 0.004"] ;
65 -> 75 ;
76 [label="Unknown 1 <= 638.58\nmse = 0.002\nsamples = 9842\nvalue = 0.002"] ;
64 -> 76 ;
77 [label="education_ High school graduate <= 0.5\nmse = 0.004\nsamples = 947\nvalue = 0.004"] ;
76 -> 77 ;
78 [label="Unknown 1 <= 467.9\nmse = 0.001\nsamples = 679\nvalue = 0.001"] ;
77 -> 78 ;
79 [label="mse = 0.0\nsamples = 429\nvalue = 0.0"] ;
78 -> 79 ;
80 [label="mse = 0.004\nsamples = 250\nvalue = 0.004"] ;
78 -> 80 ;
81 [label="mse = 0.011\nsamples = 268\nvalue = 0.011"] ;
77 -> 81 ;
82 [label="sex_ Female <= 0.5\nmse = 0.001\nsamples = 8895\nvalue = 0.001"] ;
76 -> 82 ;
83 [label="age <= 36.5\nmse = 0.003\nsamples = 2979\nvalue = 0.003"] ;
82 -> 83 ;
84 [label="mse = 0.007\nsamples = 409\nvalue = 0.007"] ;
83 -> 84 ;
85 [label="Unknown 1 <= 1615.08\nmse = 0.002\nsamples = 2570\nvalue = 0.002"] ;
83 -> 85 ;
86 [label="age <= 73.5\nmse = 0.003\nsamples = 1250\nvalue = 0.003"] ;
85 -> 86 ;
87 [label="mse = 0.001\nsamples = 824\nvalue = 0.001"] ;
86 -> 87 ;
88 [label="mse = 0.007\nsamples = 426\nvalue = 0.007"] ;
86 -> 88 ;
89 [label="Unknown 1 <= 2956.845\nmse = 0.001\nsamples = 1320\nvalue = 0.001"] ;
85 -> 89 ;
90 [label="mse = 0.0\nsamples = 1070\nvalue = 0.0"] ;
89 -> 90 ;
91 [label="mse = 0.004\nsamples = 250\nvalue = 0.004"] ;
89 -> 91 ;
92 [label="Unknown 1 <= 3638.055\nmse = 0.001\nsamples = 5916\nvalue = 0.001"] ;
82 -> 92 ;
93 [label="citizenship_ Foreign born- U S citizen by naturalization <= 0.5\nmse = 0.0\nsamples = 5666\nvalue = 0.0"] ;
92 -> 93 ;
94 [label="age <= 86.5\nmse = 0.0\nsamples = 5384\nvalue = 0.0"] ;
93 -> 94 ;
95 [label="mse = 0.0\nsamples = 5105\nvalue = 0.0"] ;
94 -> 95 ;
96 [label="mse = 0.004\nsamples = 279\nvalue = 0.004"] ;
94 -> 96 ;
97 [label="mse = 0.004\nsamples = 282\nvalue = 0.004"] ;
93 -> 97 ;
98 [label="mse = 0.004\nsamples = 250\nvalue = 0.004"] ;
92 -> 98 ;
99 [label="mse = 0.013\nsamples = 313\nvalue = 0.013"] ;
63 -> 99 ;
100 [label="age <= 47.5\nmse = 0.011\nsamples = 745\nvalue = 0.011"] ;
62 -> 100 ;
101 [label="mse = 0.017\nsamples = 415\nvalue = 0.017"] ;
100 -> 101 ;
102 [label="mse = 0.003\nsamples = 330\nvalue = 0.003"] ;
100 -> 102 ;
103 [label="education_ Masters degree(MA MS MEng MEd MSW MBA) <= 0.5\nmse = 0.023\nsamples = 14589\nvalue = 0.024"] ;
5 -> 103 ;
104 [label="age <= 30.5\nmse = 0.02\nsamples = 13986\nvalue = 0.021"] ;
103 -> 104 ;
105 [label="education_ Bachelors degree(BA AB BS) <= 0.5\nmse = 0.007\nsamples = 6116\nvalue = 0.007"] ;
104 -> 105 ;
106 [label="detailed household and family stat_ Householder <= 0.5\nmse = 0.005\nsamples = 5451\nvalue = 0.005"] ;
105 -> 106 ;
107 [label="major industry code_ Construction <= 0.5\nmse = 0.004\nsamples = 4524\nvalue = 0.004"] ;
106 -> 107 ;
108 [label="num persons worked for employer <= 4.5\nmse = 0.003\nsamples = 4215\nvalue = 0.003"] ;
107 -> 108 ;
109 [label="own business or self employed_2 <= 0.5\nmse = 0.004\nsamples = 2518\nvalue = 0.004"] ;
108 -> 109 ;
110 [label="age <= 22.5\nmse = 0.002\nsamples = 1630\nvalue = 0.002"] ;
109 -> 110 ;
111 [label="detailed household summary in household_ Child 18 or older <= 0.5\nmse = 0.004\nsamples = 940\nvalue = 0.004"] ;
110 -> 111 ;
112 [label="mse = 0.008\nsamples = 512\nvalue = 0.008"] ;
111 -> 112 ;
113 [label="mse = 0.0\nsamples = 428\nvalue = 0.0"] ;
111 -> 113 ;
114 [label="mse = 0.0\nsamples = 690\nvalue = 0.0"] ;
110 -> 114 ;
115 [label="weeks worked in year <= 39.5\nmse = 0.007\nsamples = 888\nvalue = 0.007"] ;
109 -> 115 ;
116 [label="sex_ Female <= 0.5\nmse = 0.011\nsamples = 532\nvalue = 0.011"] ;
115 -> 116 ;
117 [label="mse = 0.015\nsamples = 263\nvalue = 0.015"] ;
116 -> 117 ;
118 [label="mse = 0.007\nsamples = 269\nvalue = 0.007"] ;
116 -> 118 ;
119 [label="mse = 0.0\nsamples = 356\nvalue = 0.0"] ;
115 -> 119 ;
120 [label="age <= 25.5\nmse = 0.001\nsamples = 1697\nvalue = 0.001"] ;
108 -> 120 ;
121 [label="mse = 0.0\nsamples = 1399\nvalue = 0.0"] ;
120 -> 121 ;
122 [label="mse = 0.007\nsamples = 298\nvalue = 0.007"] ;
120 -> 122 ;
123 [label="mse = 0.016\nsamples = 309\nvalue = 0.016"] ;
107 -> 123 ;
124 [label="full or part time employment stat_ Full-time schedules <= 0.5\nmse = 0.013\nsamples = 927\nvalue = 0.013"] ;
106 -> 124 ;
125 [label="own business or self employed_0 <= 0.5\nmse = 0.009\nsamples = 658\nvalue = 0.009"] ;
124 -> 125 ;
126 [label="mse = 0.004\nsamples = 263\nvalue = 0.004"] ;
125 -> 126 ;
127 [label="mse = 0.012\nsamples = 395\nvalue = 0.013"] ;
125 -> 127 ;
128 [label="mse = 0.022\nsamples = 269\nvalue = 0.022"] ;
124 -> 128 ;
129 [label="num persons worked for employer <= 4.5\nmse = 0.018\nsamples = 665\nvalue = 0.018"] ;
105 -> 129 ;
130 [label="mse = 0.027\nsamples = 354\nvalue = 0.028"] ;
129 -> 130 ;
131 [label="mse = 0.006\nsamples = 311\nvalue = 0.006"] ;
129 -> 131 ;
132 [label="major occupation code_ Professional specialty <= 0.5\nmse = 0.031\nsamples = 7870\nvalue = 0.032"] ;
104 -> 132 ;
133 [label="detailed occupation recode_2 <= 0.5\nmse = 0.025\nsamples = 7070\nvalue = 0.026"] ;
132 -> 133 ;
134 [label="sex_ Female <= 0.5\nmse = 0.022\nsamples = 6733\nvalue = 0.023"] ;
133 -> 134 ;
135 [label="num persons worked for employer <= 5.5\nmse = 0.036\nsamples = 3169\nvalue = 0.038"] ;
134 -> 135 ;
136 [label="weeks worked in year <= 37.5\nmse = 0.028\nsamples = 2479\nvalue = 0.029"] ;
135 -> 136 ;
137 [label="age <= 40.5\nmse = 0.018\nsamples = 1307\nvalue = 0.018"] ;
136 -> 137 ;
138 [label="detailed household and family stat_ Householder <= 0.5\nmse = 0.004\nsamples = 553\nvalue = 0.004"] ;
137 -> 138 ;
139 [label="mse = 0.007\nsamples = 300\nvalue = 0.007"] ;
138 -> 139 ;
140 [label="mse = 0.0\nsamples = 253\nvalue = 0.0"] ;
138 -> 140 ;
141 [label="weeks worked in year <= 26.5\nmse = 0.028\nsamples = 754\nvalue = 0.029"] ;
137 -> 141 ;
142 [label="mse = 0.04\nsamples = 309\nvalue = 0.042"] ;
141 -> 142 ;
143 [label="mse = 0.02\nsamples = 445\nvalue = 0.02"] ;
141 -> 143 ;
144 [label="marital stat_ Married-civilian spouse present <= 0.5\nmse = 0.039\nsamples = 1172\nvalue = 0.041"] ;
136 -> 144 ;
145 [label="mse = 0.023\nsamples = 389\nvalue = 0.023"] ;
144 -> 145 ;
146 [label="age <= 48.5\nmse = 0.047\nsamples = 783\nvalue = 0.05"] ;
144 -> 146 ;
147 [label="mse = 0.041\nsamples = 517\nvalue = 0.043"] ;
146 -> 147 ;
148 [label="mse = 0.06\nsamples = 266\nvalue = 0.064"] ;
146 -> 148 ;
149 [label="tax filer stat_ Joint both under 65 <= 0.5\nmse = 0.063\nsamples = 690\nvalue = 0.068"] ;
135 -> 149 ;
150 [label="mse = 0.039\nsamples = 292\nvalue = 0.041"] ;
149 -> 150 ;
151 [label="mse = 0.08\nsamples = 398\nvalue = 0.088"] ;
149 -> 151 ;
152 [label="education_ Bachelors degree(BA AB BS) <= 0.5\nmse = 0.009\nsamples = 3564\nvalue = 0.009"] ;
134 -> 152 ;
153 [label="class of worker_ Not in universe <= 0.5\nmse = 0.007\nsamples = 3267\nvalue = 0.007"] ;
152 -> 153 ;
154 [label="race_ Black <= 0.5\nmse = 0.006\nsamples = 2751\nvalue = 0.006"] ;
153 -> 154 ;
155 [label="detailed occupation recode_26 <= 0.5\nmse = 0.004\nsamples = 2437\nvalue = 0.004"] ;
154 -> 155 ;
156 [label="mse = 0.003\nsamples = 2037\nvalue = 0.003"] ;
155 -> 156 ;
157 [label="mse = 0.01\nsamples = 400\nvalue = 0.01"] ;
155 -> 157 ;
158 [label="mse = 0.019\nsamples = 314\nvalue = 0.019"] ;
154 -> 158 ;
159 [label="year <= 94.5\nmse = 0.015\nsamples = 516\nvalue = 0.016"] ;
153 -> 159 ;
160 [label="mse = 0.026\nsamples = 257\nvalue = 0.027"] ;
159 -> 160 ;
161 [label="mse = 0.004\nsamples = 259\nvalue = 0.004"] ;
159 -> 161 ;
162 [label="mse = 0.029\nsamples = 297\nvalue = 0.03"] ;
152 -> 162 ;
163 [label="mse = 0.088\nsamples = 337\nvalue = 0.098"] ;
133 -> 163 ;
164 [label="detailed occupation recode_10 <= 0.5\nmse = 0.076\nsamples = 800\nvalue = 0.082"] ;
132 -> 164 ;
165 [label="mse = 0.105\nsamples = 426\nvalue = 0.12"] ;
164 -> 165 ;
166 [label="mse = 0.038\nsamples = 374\nvalue = 0.04"] ;
164 -> 166 ;
167 [label="detailed household summary in household_ Householder <= 0.5\nmse = 0.087\nsamples = 603\nvalue = 0.096"] ;
103 -> 167 ;
168 [label="mse = 0.046\nsamples = 310\nvalue = 0.048"] ;
167 -> 168 ;
169 [label="mse = 0.125\nsamples = 293\nvalue = 0.147"] ;
167 -> 169 ;
170 [label="mse = 0.125\nsamples = 377\nvalue = 0.146"] ;
4 -> 170 ;
171 [label="weeks worked in year <= 25.5\nmse = 0.057\nsamples = 6390\nvalue = 0.061"] ;
3 -> 171 ;
172 [label="dividends from stocks <= 4165.0\nmse = 0.04\nsamples = 5312\nvalue = 0.041"] ;
171 -> 172 ;
173 [label="sex_ Female <= 0.5\nmse = 0.029\nsamples = 4490\nvalue = 0.03"] ;
172 -> 173 ;
174 [label="education_ High school graduate <= 0.5\nmse = 0.05\nsamples = 1679\nvalue = 0.053"] ;
173 -> 174 ;
175 [label="detailed household and family stat_ Householder <= 0.5\nmse = 0.063\nsamples = 1171\nvalue = 0.067"] ;
174 -> 175 ;
176 [label="mse = 0.041\nsamples = 395\nvalue = 0.043"] ;
175 -> 176 ;
177 [label="Unknown 1 <= 1366.43\nmse = 0.074\nsamples = 776\nvalue = 0.08"] ;
175 -> 177 ;
178 [label="mse = 0.091\nsamples = 267\nvalue = 0.101"] ;
177 -> 178 ;
179 [label="Unknown 1 <= 2057.955\nmse = 0.064\nsamples = 509\nvalue = 0.069"] ;
177 -> 179 ;
180 [label="mse = 0.049\nsamples = 254\nvalue = 0.051"] ;
179 -> 180 ;
181 [label="mse = 0.079\nsamples = 255\nvalue = 0.086"] ;
179 -> 181 ;
182 [label="dividends from stocks <= 620.0\nmse = 0.019\nsamples = 508\nvalue = 0.02"] ;
174 -> 182 ;
183 [label="mse = 0.023\nsamples = 250\nvalue = 0.024"] ;
182 -> 183 ;
184 [label="mse = 0.015\nsamples = 258\nvalue = 0.016"] ;
182 -> 184 ;
185 [label="age <= 75.5\nmse = 0.016\nsamples = 2811\nvalue = 0.016"] ;
173 -> 185 ;
186 [label="num persons worked for employer <= 2.5\nmse = 0.012\nsamples = 2255\nvalue = 0.012"] ;
185 -> 186 ;
187 [label="dividends from stocks <= 1494.0\nmse = 0.009\nsamples = 1988\nvalue = 0.01"] ;
186 -> 187 ;
188 [label="detailed household summary in household_ Spouse of householder <= 0.5\nmse = 0.006\nsamples = 1428\nvalue = 0.006"] ;
187 -> 188 ;
189 [label="mse = 0.013\nsamples = 455\nvalue = 0.013"] ;
188 -> 189 ;
190 [label="age <= 57.5\nmse = 0.003\nsamples = 973\nvalue = 0.003"] ;
188 -> 190 ;
191 [label="mse = 0.006\nsamples = 479\nvalue = 0.006"] ;
190 -> 191 ;
192 [label="mse = 0.0\nsamples = 494\nvalue = 0.0"] ;
190 -> 192 ;
193 [label="dividends from stocks <= 2054.0\nmse = 0.018\nsamples = 560\nvalue = 0.018"] ;
187 -> 193 ;
194 [label="mse = 0.027\nsamples = 254\nvalue = 0.028"] ;
193 -> 194 ;
195 [label="mse = 0.01\nsamples = 306\nvalue = 0.01"] ;
193 -> 195 ;
196 [label="mse = 0.033\nsamples = 267\nvalue = 0.034"] ;
186 -> 196 ;
197 [label="age <= 80.5\nmse = 0.03\nsamples = 556\nvalue = 0.031"] ;
185 -> 197 ;
198 [label="mse = 0.041\nsamples = 283\nvalue = 0.042"] ;
197 -> 198 ;
199 [label="mse = 0.018\nsamples = 273\nvalue = 0.018"] ;
197 -> 199 ;
200 [label="sex_ Female <= 0.5\nmse = 0.093\nsamples = 822\nvalue = 0.103"] ;
172 -> 200 ;
201 [label="mse = 0.152\nsamples = 305\nvalue = 0.187"] ;
200 -> 201 ;
202 [label="dividends from stocks <= 6935.0\nmse = 0.051\nsamples = 517\nvalue = 0.054"] ;
200 -> 202 ;
203 [label="mse = 0.031\nsamples = 250\nvalue = 0.032"] ;
202 -> 203 ;
204 [label="mse = 0.069\nsamples = 267\nvalue = 0.075"] ;
202 -> 204 ;
205 [label="sex_ Female <= 0.5\nmse = 0.134\nsamples = 1078\nvalue = 0.16"] ;
171 -> 205 ;
206 [label="mse = 0.193\nsamples = 439\nvalue = 0.262"] ;
205 -> 206 ;
207 [label="age <= 45.5\nmse = 0.081\nsamples = 639\nvalue = 0.089"] ;
205 -> 207 ;
208 [label="mse = 0.032\nsamples = 304\nvalue = 0.033"] ;
207 -> 208 ;
209 [label="mse = 0.121\nsamples = 335\nvalue = 0.14"] ;
207 -> 209 ;
210 [label="mse = 0.249\nsamples = 265\nvalue = 0.475"] ;
2 -> 210 ;
211 [label="dividends from stocks <= 88.5\nmse = 0.109\nsamples = 73472\nvalue = 0.125"] ;
1 -> 211 ;
212 [label="sex_ Female <= 0.5\nmse = 0.085\nsamples = 65390\nvalue = 0.094"] ;
211 -> 212 ;
213 [label="major occupation code_ Executive admin and managerial <= 0.5\nmse = 0.12\nsamples = 35225\nvalue = 0.139"] ;
212 -> 213 ;
214 [label="major occupation code_ Professional specialty <= 0.5\nmse = 0.1\nsamples = 30757\nvalue = 0.113"] ;
213 -> 214 ;
215 [label="age <= 33.5\nmse = 0.077\nsamples = 27024\nvalue = 0.084"] ;
214 -> 215 ;
216 [label="education_ Bachelors degree(BA AB BS) <= 0.5\nmse = 0.034\nsamples = 10855\nvalue = 0.035"] ;
215 -> 216 ;
217 [label="capital losses <= 639.0\nmse = 0.027\nsamples = 9861\nvalue = 0.028"] ;
216 -> 217 ;
218 [label="tax filer stat_ Joint both under 65 <= 0.5\nmse = 0.024\nsamples = 9562\nvalue = 0.024"] ;
217 -> 218 ;
219 [label="age <= 28.5\nmse = 0.011\nsamples = 5224\nvalue = 0.011"] ;
218 -> 219 ;
220 [label="major industry code_ Retail trade <= 0.5\nmse = 0.007\nsamples = 3939\nvalue = 0.007"] ;
219 -> 220 ;
221 [label="age <= 24.5\nmse = 0.009\nsamples = 2656\nvalue = 0.009"] ;
220 -> 221 ;
222 [label="own business or self employed_0 <= 0.5\nmse = 0.006\nsamples = 1713\nvalue = 0.006"] ;
221 -> 222 ;
223 [label="mse = 0.013\nsamples = 444\nvalue = 0.014"] ;
222 -> 223 ;
224 [label="num persons worked for employer <= 3.5\nmse = 0.003\nsamples = 1269\nvalue = 0.003"] ;
222 -> 224 ;
225 [label="mse = 0.006\nsamples = 715\nvalue = 0.006"] ;
224 -> 225 ;
226 [label="mse = 0.0\nsamples = 554\nvalue = 0.0"] ;
224 -> 226 ;
227 [label="Unknown 1 <= 1327.355\nmse = 0.016\nsamples = 943\nvalue = 0.016"] ;
221 -> 227 ;
228 [label="mse = 0.003\nsamples = 305\nvalue = 0.003"] ;
227 -> 228 ;
229 [label="full or part time employment stat_ Children or Armed Forces <= 0.5\nmse = 0.021\nsamples = 638\nvalue = 0.022"] ;
227 -> 229 ;
230 [label="mse = 0.033\nsamples = 295\nvalue = 0.034"] ;
229 -> 230 ;
231 [label="mse = 0.012\nsamples = 343\nvalue = 0.012"] ;
229 -> 231 ;
232 [label="detailed occupation recode_19 <= 0.5\nmse = 0.001\nsamples = 1283\nvalue = 0.001"] ;
220 -> 232 ;
233 [label="mse = 0.0\nsamples = 1018\nvalue = 0.0"] ;
232 -> 233 ;
234 [label="mse = 0.004\nsamples = 265\nvalue = 0.004"] ;
232 -> 234 ;
235 [label="major occupation code_ Precision production craft & repair <= 0.5\nmse = 0.024\nsamples = 1285\nvalue = 0.025"] ;
219 -> 235 ;
236 [label="detailed household and family stat_ Nonfamily householder <= 0.5\nmse = 0.016\nsamples = 952\nvalue = 0.016"] ;
235 -> 236 ;
237 [label="num persons worked for employer <= 3.5\nmse = 0.007\nsamples = 580\nvalue = 0.007"] ;
236 -> 237 ;
238 [label="mse = 0.0\nsamples = 278\nvalue = 0.0"] ;
237 -> 238 ;
239 [label="mse = 0.013\nsamples = 302\nvalue = 0.013"] ;
237 -> 239 ;
240 [label="mse = 0.029\nsamples = 372\nvalue = 0.03"] ;
236 -> 240 ;
241 [label="mse = 0.048\nsamples = 333\nvalue = 0.051"] ;
235 -> 241 ;
242 [label="major occupation code_ Sales <= 0.5\nmse = 0.039\nsamples = 4338\nvalue = 0.041"] ;
218 -> 242 ;
243 [label="num persons worked for employer <= 5.5\nmse = 0.034\nsamples = 3890\nvalue = 0.036"] ;
242 -> 243 ;
244 [label="major occupation code_ Precision production craft & repair <= 0.5\nmse = 0.024\nsamples = 2600\nvalue = 0.025"] ;
243 -> 244 ;
245 [label="class of worker_ Private <= 0.5\nmse = 0.015\nsamples = 1660\nvalue = 0.016"] ;
244 -> 245 ;
246 [label="mse = 0.037\nsamples = 337\nvalue = 0.039"] ;
245 -> 246 ;
247 [label="detailed household summary in household_ Householder <= 0.5\nmse = 0.01\nsamples = 1323\nvalue = 0.01"] ;
245 -> 247 ;
248 [label="mse = 0.023\nsamples = 297\nvalue = 0.024"] ;
247 -> 248 ;
249 [label="mse = 0.006\nsamples = 1026\nvalue = 0.006"] ;
247 -> 249 ;
250 [label="age <= 29.5\nmse = 0.04\nsamples = 940\nvalue = 0.041"] ;
244 -> 250 ;
251 [label="mse = 0.029\nsamples = 476\nvalue = 0.029"] ;
250 -> 251 ;
252 [label="mse = 0.051\nsamples = 464\nvalue = 0.054"] ;
250 -> 252 ;
253 [label="age <= 25.5\nmse = 0.054\nsamples = 1290\nvalue = 0.057"] ;
243 -> 253 ;
254 [label="mse = 0.02\nsamples = 299\nvalue = 0.02"] ;
253 -> 254 ;
255 [label="Unknown 1 <= 1259.93\nmse = 0.064\nsamples = 991\nvalue = 0.069"] ;
253 -> 255 ;
256 [label="mse = 0.042\nsamples = 390\nvalue = 0.044"] ;
255 -> 256 ;
257 [label="age <= 30.5\nmse = 0.078\nsamples = 601\nvalue = 0.085"] ;
255 -> 257 ;
258 [label="mse = 0.101\nsamples = 333\nvalue = 0.114"] ;
257 -> 258 ;
259 [label="mse = 0.046\nsamples = 268\nvalue = 0.049"] ;
257 -> 259 ;
260 [label="mse = 0.076\nsamples = 448\nvalue = 0.083"] ;
242 -> 260 ;
261 [label="mse = 0.118\nsamples = 299\nvalue = 0.137"] ;
217 -> 261 ;
262 [label="marital stat_ Never married <= 0.5\nmse = 0.096\nsamples = 994\nvalue = 0.108"] ;
216 -> 262 ;
263 [label="mse = 0.143\nsamples = 497\nvalue = 0.173"] ;
262 -> 263 ;
264 [label="mse = 0.04\nsamples = 497\nvalue = 0.042"] ;
262 -> 264 ;
265 [label="major occupation code_ Sales <= 0.5\nmse = 0.104\nsamples = 16169\nvalue = 0.118"] ;
215 -> 265 ;
266 [label="num persons worked for employer <= 5.5\nmse = 0.088\nsamples = 13781\nvalue = 0.098"] ;
265 -> 266 ;
267 [label="major industry code_ Public administration <= 0.5\nmse = 0.064\nsamples = 8811\nvalue = 0.069"] ;
266 -> 267 ;
268 [label="capital losses <= 1537.0\nmse = 0.06\nsamples = 8430\nvalue = 0.064"] ;
267 -> 268 ;
269 [label="class of worker_ Self-employed-incorporated <= 0.5\nmse = 0.057\nsamples = 8151\nvalue = 0.061"] ;
268 -> 269 ;
270 [label="major occupation code_ Other service <= 0.5\nmse = 0.054\nsamples = 7880\nvalue = 0.058"] ;
269 -> 270 ;
271 [label="marital stat_ Married-civilian spouse present <= 0.5\nmse = 0.059\nsamples = 7060\nvalue = 0.063"] ;
270 -> 271 ;
272 [label="age <= 50.5\nmse = 0.036\nsamples = 1718\nvalue = 0.038"] ;
271 -> 272 ;
273 [label="mse = 0.028\nsamples = 1314\nvalue = 0.029"] ;
272 -> 273 ;
274 [label="mse = 0.062\nsamples = 404\nvalue = 0.067"] ;
272 -> 274 ;
275 [label="num persons worked for employer <= 3.5\nmse = 0.066\nsamples = 5342\nvalue = 0.071"] ;
271 -> 275 ;
276 [label="mse = 0.056\nsamples = 3585\nvalue = 0.06"] ;
275 -> 276 ;
277 [label="mse = 0.085\nsamples = 1757\nvalue = 0.094"] ;
275 -> 277 ;
278 [label="detailed occupation recode_31 <= 0.5\nmse = 0.012\nsamples = 820\nvalue = 0.012"] ;
270 -> 278 ;
279 [label="mse = 0.021\nsamples = 417\nvalue = 0.022"] ;
278 -> 279 ;
280 [label="mse = 0.002\nsamples = 403\nvalue = 0.002"] ;
278 -> 280 ;
281 [label="mse = 0.123\nsamples = 271\nvalue = 0.144"] ;
269 -> 281 ;
282 [label="mse = 0.133\nsamples = 279\nvalue = 0.158"] ;
268 -> 282 ;
283 [label="mse = 0.15\nsamples = 381\nvalue = 0.184"] ;
267 -> 283 ;
284 [label="education_ Bachelors degree(BA AB BS) <= 0.5\nmse = 0.127\nsamples = 4970\nvalue = 0.15"] ;
266 -> 284 ;
285 [label="major occupation code_ Other service <= 0.5\nmse = 0.117\nsamples = 4524\nvalue = 0.135"] ;
284 -> 285 ;
286 [label="dividends from stocks <= 0.5\nmse = 0.124\nsamples = 4107\nvalue = 0.145"] ;
285 -> 286 ;
287 [label="major occupation code_ Handlers equip cleaners etc  <= 0.5\nmse = 0.118\nsamples = 3832\nvalue = 0.137"] ;
286 -> 287 ;
288 [label="age <= 39.5\nmse = 0.125\nsamples = 3523\nvalue = 0.146"] ;
287 -> 288 ;
289 [label="tax filer stat_ Joint both under 65 <= 0.5\nmse = 0.091\nsamples = 1009\nvalue = 0.101"] ;
288 -> 289 ;
290 [label="mse = 0.05\nsamples = 266\nvalue = 0.053"] ;
289 -> 290 ;
291 [label="mse = 0.104\nsamples = 743\nvalue = 0.118"] ;
289 -> 291 ;
292 [label="education_ Some college but no degree <= 0.5\nmse = 0.137\nsamples = 2514\nvalue = 0.164"] ;
288 -> 292 ;
293 [label="mse = 0.128\nsamples = 1895\nvalue = 0.151"] ;
292 -> 293 ;
294 [label="mse = 0.163\nsamples = 619\nvalue = 0.205"] ;
292 -> 294 ;
295 [label="mse = 0.031\nsamples = 309\nvalue = 0.032"] ;
287 -> 295 ;
296 [label="mse = 0.192\nsamples = 275\nvalue = 0.258"] ;
286 -> 296 ;
297 [label="mse = 0.037\nsamples = 417\nvalue = 0.038"] ;
285 -> 297 ;
298 [label="mse = 0.208\nsamples = 446\nvalue = 0.296"] ;
284 -> 298 ;
299 [label="major industry code_ Finance insurance and real estate <= 0.5\nmse = 0.177\nsamples = 2388\nvalue = 0.23"] ;
265 -> 299 ;
300 [label="detailed occupation recode_19 <= 0.5\nmse = 0.154\nsamples = 1991\nvalue = 0.191"] ;
299 -> 300 ;
301 [label="tax filer stat_ Joint both under 65 <= 0.5\nmse = 0.172\nsamples = 1477\nvalue = 0.221"] ;
300 -> 301 ;
302 [label="mse = 0.118\nsamples = 350\nvalue = 0.137"] ;
301 -> 302 ;
303 [label="education_ Bachelors degree(BA AB BS) <= 0.5\nmse = 0.186\nsamples = 1127\nvalue = 0.248"] ;
301 -> 303 ;
304 [label="detailed occupation recode_16 <= 0.5\nmse = 0.173\nsamples = 870\nvalue = 0.223"] ;
303 -> 304 ;
305 [label="mse = 0.202\nsamples = 271\nvalue = 0.28"] ;
304 -> 305 ;
306 [label="num persons worked for employer <= 1.5\nmse = 0.158\nsamples = 599\nvalue = 0.197"] ;
304 -> 306 ;
307 [label="mse = 0.135\nsamples = 260\nvalue = 0.162"] ;
306 -> 307 ;
308 [label="mse = 0.174\nsamples = 339\nvalue = 0.224"] ;
306 -> 308 ;
309 [label="mse = 0.221\nsamples = 257\nvalue = 0.331"] ;
303 -> 309 ;
310 [label="Unknown 1 <= 1521.295\nmse = 0.092\nsamples = 514\nvalue = 0.103"] ;
300 -> 310 ;
311 [label="mse = 0.085\nsamples = 255\nvalue = 0.094"] ;
310 -> 311 ;
312 [label="mse = 0.099\nsamples = 259\nvalue = 0.112"] ;
310 -> 312 ;
313 [label="mse = 0.244\nsamples = 397\nvalue = 0.426"] ;
299 -> 313 ;
314 [label="age <= 33.5\nmse = 0.218\nsamples = 3733\nvalue = 0.321"] ;
214 -> 314 ;
315 [label="age <= 27.5\nmse = 0.123\nsamples = 1131\nvalue = 0.144"] ;
314 -> 315 ;
316 [label="mse = 0.045\nsamples = 403\nvalue = 0.047"] ;
315 -> 316 ;
317 [label="age <= 30.5\nmse = 0.159\nsamples = 728\nvalue = 0.198"] ;
315 -> 317 ;
318 [label="mse = 0.129\nsamples = 373\nvalue = 0.153"] ;
317 -> 318 ;
319 [label="mse = 0.185\nsamples = 355\nvalue = 0.245"] ;
317 -> 319 ;
320 [label="detailed occupation recode_12 <= 0.5\nmse = 0.24\nsamples = 2602\nvalue = 0.398"] ;
314 -> 320 ;
321 [label="detailed occupation recode_10 <= 0.5\nmse = 0.249\nsamples = 1939\nvalue = 0.477"] ;
320 -> 321 ;
322 [label="education_ Prof school degree (MD DDS DVM LLB JD) <= 0.5\nmse = 0.248\nsamples = 1550\nvalue = 0.546"] ;
321 -> 322 ;
323 [label="age <= 44.5\nmse = 0.25\nsamples = 1254\nvalue = 0.504"] ;
322 -> 323 ;
324 [label="Unknown 1 <= 1457.47\nmse = 0.247\nsamples = 724\nvalue = 0.443"] ;
323 -> 324 ;
325 [label="mse = 0.239\nsamples = 291\nvalue = 0.395"] ;
324 -> 325 ;
326 [label="mse = 0.249\nsamples = 433\nvalue = 0.476"] ;
324 -> 326 ;
327 [label="num persons worked for employer <= 5.5\nmse = 0.242\nsamples = 530\nvalue = 0.587"] ;
323 -> 327 ;
328 [label="mse = 0.249\nsamples = 251\nvalue = 0.534"] ;
327 -> 328 ;
329 [label="mse = 0.232\nsamples = 279\nvalue = 0.634"] ;
327 -> 329 ;
330 [label="mse = 0.2\nsamples = 296\nvalue = 0.723"] ;
322 -> 330 ;
331 [label="mse = 0.162\nsamples = 389\nvalue = 0.203"] ;
321 -> 331 ;
332 [label="num persons worked for employer <= 3.5\nmse = 0.138\nsamples = 663\nvalue = 0.166"] ;
320 -> 332 ;
333 [label="mse = 0.115\nsamples = 392\nvalue = 0.133"] ;
332 -> 333 ;
334 [label="mse = 0.168\nsamples = 271\nvalue = 0.214"] ;
332 -> 334 ;
335 [label="age <= 31.5\nmse = 0.217\nsamples = 4468\nvalue = 0.318"] ;
213 -> 335 ;
336 [label="age <= 28.5\nmse = 0.098\nsamples = 865\nvalue = 0.11"] ;
335 -> 336 ;
337 [label="migration prev res in sunbelt_ ? <= 0.5\nmse = 0.056\nsamples = 536\nvalue = 0.06"] ;
336 -> 337 ;
338 [label="mse = 0.029\nsamples = 265\nvalue = 0.03"] ;
337 -> 338 ;
339 [label="mse = 0.081\nsamples = 271\nvalue = 0.089"] ;
337 -> 339 ;
340 [label="mse = 0.155\nsamples = 329\nvalue = 0.191"] ;
336 -> 340 ;
341 [label="education_ Masters degree(MA MS MEng MEd MSW MBA) <= 0.5\nmse = 0.233\nsamples = 3603\nvalue = 0.368"] ;
335 -> 341 ;
342 [label="education_ Bachelors degree(BA AB BS) <= 0.5\nmse = 0.222\nsamples = 3179\nvalue = 0.333"] ;
341 -> 342 ;
343 [label="num persons worked for employer <= 1.5\nmse = 0.198\nsamples = 2018\nvalue = 0.273"] ;
342 -> 343 ;
344 [label="class of worker_ Self-employed-not incorporated <= 0.5\nmse = 0.15\nsamples = 634\nvalue = 0.185"] ;
343 -> 344 ;
345 [label="mse = 0.181\nsamples = 349\nvalue = 0.238"] ;
344 -> 345 ;
346 [label="mse = 0.105\nsamples = 285\nvalue = 0.119"] ;
344 -> 346 ;
347 [label="detailed occupation recode_2 <= 0.5\nmse = 0.215\nsamples = 1384\nvalue = 0.313"] ;
343 -> 347 ;
348 [label="mse = 0.162\nsamples = 325\nvalue = 0.203"] ;
347 -> 348 ;
349 [label="age <= 45.5\nmse = 0.226\nsamples = 1059\nvalue = 0.347"] ;
347 -> 349 ;
350 [label="Unknown 1 <= 1680.395\nmse = 0.204\nsamples = 580\nvalue = 0.286"] ;
349 -> 350 ;
351 [label="mse = 0.186\nsamples = 312\nvalue = 0.247"] ;
350 -> 351 ;
352 [label="mse = 0.222\nsamples = 268\nvalue = 0.332"] ;
350 -> 352 ;
353 [label="mse = 0.244\nsamples = 479\nvalue = 0.42"] ;
349 -> 353 ;
354 [label="num persons worked for employer <= 3.5\nmse = 0.246\nsamples = 1161\nvalue = 0.439"] ;
342 -> 354 ;
355 [label="num persons worked for employer <= 1.5\nmse = 0.227\nsamples = 553\nvalue = 0.349"] ;
354 -> 355 ;
356 [label="mse = 0.208\nsamples = 268\nvalue = 0.295"] ;
355 -> 356 ;
357 [label="mse = 0.24\nsamples = 285\nvalue = 0.4"] ;
355 -> 357 ;
358 [label="Unknown 1 <= 1605.955\nmse = 0.25\nsamples = 608\nvalue = 0.521"] ;
354 -> 358 ;
359 [label="mse = 0.247\nsamples = 275\nvalue = 0.447"] ;
358 -> 359 ;
360 [label="mse = 0.243\nsamples = 333\nvalue = 0.583"] ;
358 -> 360 ;
361 [label="mse = 0.234\nsamples = 424\nvalue = 0.627"] ;
341 -> 361 ;
362 [label="education_ Masters degree(MA MS MEng MEd MSW MBA) <= 0.5\nmse = 0.04\nsamples = 30165\nvalue = 0.042"] ;
212 -> 362 ;
363 [label="major occupation code_ Professional specialty <= 0.5\nmse = 0.034\nsamples = 28796\nvalue = 0.035"] ;
362 -> 363 ;
364 [label="education_ Bachelors degree(BA AB BS) <= 0.5\nmse = 0.024\nsamples = 25148\nvalue = 0.025"] ;
363 -> 364 ;
365 [label="major occupation code_ Executive admin and managerial <= 0.5\nmse = 0.016\nsamples = 22318\nvalue = 0.017"] ;
364 -> 365 ;
366 [label="detailed occupation recode_17 <= 0.5\nmse = 0.012\nsamples = 19716\nvalue = 0.012"] ;
365 -> 366 ;
367 [label="detailed occupation recode_16 <= 0.5\nmse = 0.011\nsamples = 19397\nvalue = 0.011"] ;
366 -> 367 ;
368 [label="capital losses <= 1576.0\nmse = 0.01\nsamples = 18581\nvalue = 0.01"] ;
367 -> 368 ;
369 [label="num persons worked for employer <= 5.5\nmse = 0.009\nsamples = 18330\nvalue = 0.009"] ;
368 -> 369 ;
370 [label="major industry code_ Retail trade <= 0.5\nmse = 0.006\nsamples = 11611\nvalue = 0.006"] ;
369 -> 370 ;
371 [label="wage per hour <= 477.5\nmse = 0.008\nsamples = 9593\nvalue = 0.008"] ;
370 -> 371 ;
372 [label="marital stat_ Divorced <= 0.5\nmse = 0.008\nsamples = 8325\nvalue = 0.009"] ;
371 -> 372 ;
373 [label="mse = 0.007\nsamples = 7195\nvalue = 0.008"] ;
372 -> 373 ;
374 [label="mse = 0.015\nsamples = 1130\nvalue = 0.015"] ;
372 -> 374 ;
375 [label="major occupation code_ Adm support including clerical <= 0.5\nmse = 0.002\nsamples = 1268\nvalue = 0.002"] ;
371 -> 375 ;
376 [label="mse = 0.0\nsamples = 724\nvalue = 0.0"] ;
375 -> 376 ;
377 [label="mse = 0.004\nsamples = 544\nvalue = 0.004"] ;
375 -> 377 ;
378 [label="own business or self employed_0 <= 0.5\nmse = 0.001\nsamples = 2018\nvalue = 0.001"] ;
370 -> 378 ;
379 [label="mse = 0.006\nsamples = 345\nvalue = 0.006"] ;
378 -> 379 ;
380 [label="mse = 0.0\nsamples = 1673\nvalue = 0.0"] ;
378 -> 380 ;
381 [label="major occupation code_ Technicians and related support <= 0.5\nmse = 0.014\nsamples = 6719\nvalue = 0.014"] ;
369 -> 381 ;
382 [label="marital stat_ Divorced <= 0.5\nmse = 0.012\nsamples = 6400\nvalue = 0.012"] ;
381 -> 382 ;
383 [label="marital stat_ Separated <= 0.5\nmse = 0.01\nsamples = 5441\nvalue = 0.01"] ;
382 -> 383 ;
384 [label="mse = 0.009\nsamples = 5183\nvalue = 0.009"] ;
383 -> 384 ;
385 [label="mse = 0.03\nsamples = 258\nvalue = 0.031"] ;
383 -> 385 ;
386 [label="Unknown 1 <= 1123.46\nmse = 0.024\nsamples = 959\nvalue = 0.025"] ;
382 -> 386 ;
387 [label="mse = 0.038\nsamples = 250\nvalue = 0.04"] ;
386 -> 387 ;
388 [label="mse = 0.019\nsamples = 709\nvalue = 0.02"] ;
386 -> 388 ;
389 [label="mse = 0.045\nsamples = 319\nvalue = 0.047"] ;
381 -> 389 ;
390 [label="mse = 0.049\nsamples = 251\nvalue = 0.052"] ;
368 -> 390 ;
391 [label="age <= 42.5\nmse = 0.038\nsamples = 816\nvalue = 0.039"] ;
367 -> 391 ;
392 [label="Unknown 1 <= 1589.54\nmse = 0.019\nsamples = 504\nvalue = 0.02"] ;
391 -> 392 ;
393 [label="mse = 0.016\nsamples = 254\nvalue = 0.016"] ;
392 -> 393 ;
394 [label="mse = 0.023\nsamples = 250\nvalue = 0.024"] ;
392 -> 394 ;
395 [label="mse = 0.066\nsamples = 312\nvalue = 0.071"] ;
391 -> 395 ;
396 [label="mse = 0.075\nsamples = 319\nvalue = 0.082"] ;
366 -> 396 ;
397 [label="age <= 34.5\nmse = 0.049\nsamples = 2602\nvalue = 0.051"] ;
365 -> 397 ;
398 [label="Unknown 1 <= 2013.02\nmse = 0.021\nsamples = 793\nvalue = 0.021"] ;
397 -> 398 ;
399 [label="detailed household and family stat_ Spouse of householder <= 0.5\nmse = 0.028\nsamples = 530\nvalue = 0.028"] ;
398 -> 399 ;
400 [label="mse = 0.018\nsamples = 269\nvalue = 0.019"] ;
399 -> 400 ;
401 [label="mse = 0.037\nsamples = 261\nvalue = 0.038"] ;
399 -> 401 ;
402 [label="mse = 0.008\nsamples = 263\nvalue = 0.008"] ;
398 -> 402 ;
403 [label="migration code-move within reg_ ? <= 0.5\nmse = 0.06\nsamples = 1809\nvalue = 0.064"] ;
397 -> 403 ;
404 [label="detailed household summary in household_ Householder <= 0.5\nmse = 0.045\nsamples = 910\nvalue = 0.047"] ;
403 -> 404 ;
405 [label="Unknown 1 <= 1709.855\nmse = 0.034\nsamples = 574\nvalue = 0.035"] ;
404 -> 405 ;
406 [label="mse = 0.022\nsamples = 316\nvalue = 0.022"] ;
405 -> 406 ;
407 [label="mse = 0.048\nsamples = 258\nvalue = 0.05"] ;
405 -> 407 ;
408 [label="mse = 0.064\nsamples = 336\nvalue = 0.068"] ;
404 -> 408 ;
409 [label="num persons worked for employer <= 2.5\nmse = 0.075\nsamples = 899\nvalue = 0.081"] ;
403 -> 409 ;
410 [label="mse = 0.046\nsamples = 267\nvalue = 0.049"] ;
409 -> 410 ;
411 [label="education_ High school graduate <= 0.5\nmse = 0.086\nsamples = 632\nvalue = 0.095"] ;
409 -> 411 ;
412 [label="mse = 0.101\nsamples = 368\nvalue = 0.114"] ;
411 -> 412 ;
413 [label="mse = 0.064\nsamples = 264\nvalue = 0.068"] ;
411 -> 413 ;
414 [label="detailed occupation recode_2 <= 0.5\nmse = 0.081\nsamples = 2830\nvalue = 0.089"] ;
364 -> 414 ;
415 [label="age <= 29.5\nmse = 0.063\nsamples = 2270\nvalue = 0.067"] ;
414 -> 415 ;
416 [label="Unknown 1 <= 2063.45\nmse = 0.028\nsamples = 729\nvalue = 0.029"] ;
415 -> 416 ;
417 [label="mse = 0.02\nsamples = 479\nvalue = 0.021"] ;
416 -> 417 ;
418 [label="mse = 0.042\nsamples = 250\nvalue = 0.044"] ;
416 -> 418 ;
419 [label="major occupation code_ Sales <= 0.5\nmse = 0.078\nsamples = 1541\nvalue = 0.086"] ;
415 -> 419 ;
420 [label="num persons worked for employer <= 5.5\nmse = 0.064\nsamples = 1228\nvalue = 0.068"] ;
419 -> 420 ;
421 [label="detailed household summary in household_ Householder <= 0.5\nmse = 0.047\nsamples = 772\nvalue = 0.049"] ;
420 -> 421 ;
422 [label="Unknown 1 <= 1693.15\nmse = 0.034\nsamples = 518\nvalue = 0.035"] ;
421 -> 422 ;
423 [label="mse = 0.022\nsamples = 267\nvalue = 0.022"] ;
422 -> 423 ;
424 [label="mse = 0.046\nsamples = 251\nvalue = 0.048"] ;
422 -> 424 ;
425 [label="mse = 0.073\nsamples = 254\nvalue = 0.079"] ;
421 -> 425 ;
426 [label="mse = 0.091\nsamples = 456\nvalue = 0.101"] ;
420 -> 426 ;
427 [label="mse = 0.13\nsamples = 313\nvalue = 0.153"] ;
419 -> 427 ;
428 [label="age <= 37.5\nmse = 0.147\nsamples = 560\nvalue = 0.179"] ;
414 -> 428 ;
429 [label="mse = 0.114\nsamples = 290\nvalue = 0.131"] ;
428 -> 429 ;
430 [label="mse = 0.177\nsamples = 270\nvalue = 0.23"] ;
428 -> 430 ;
431 [label="detailed occupation recode_10 <= 0.5\nmse = 0.095\nsamples = 3648\nvalue = 0.107"] ;
363 -> 431 ;
432 [label="detailed occupation recode_12 <= 0.5\nmse = 0.118\nsamples = 2600\nvalue = 0.137"] ;
431 -> 432 ;
433 [label="age <= 30.5\nmse = 0.146\nsamples = 1732\nvalue = 0.177"] ;
432 -> 433 ;
434 [label="mse = 0.061\nsamples = 395\nvalue = 0.066"] ;
433 -> 434 ;
435 [label="detailed occupation recode_8 <= 0.5\nmse = 0.166\nsamples = 1337\nvalue = 0.21"] ;
433 -> 435 ;
436 [label="mse = 0.222\nsamples = 414\nvalue = 0.333"] ;
435 -> 436 ;
437 [label="education_ Bachelors degree(BA AB BS) <= 0.5\nmse = 0.131\nsamples = 923\nvalue = 0.155"] ;
435 -> 437 ;
438 [label="year <= 94.5\nmse = 0.103\nsamples = 543\nvalue = 0.116"] ;
437 -> 438 ;
439 [label="mse = 0.089\nsamples = 272\nvalue = 0.099"] ;
438 -> 439 ;
440 [label="mse = 0.115\nsamples = 271\nvalue = 0.133"] ;
438 -> 440 ;
441 [label="mse = 0.166\nsamples = 380\nvalue = 0.211"] ;
437 -> 441 ;
442 [label="age <= 33.5\nmse = 0.053\nsamples = 868\nvalue = 0.056"] ;
432 -> 442 ;
443 [label="mse = 0.029\nsamples = 305\nvalue = 0.03"] ;
442 -> 443 ;
444 [label="Unknown 1 <= 1424.725\nmse = 0.066\nsamples = 563\nvalue = 0.071"] ;
442 -> 444 ;
445 [label="mse = 0.052\nsamples = 256\nvalue = 0.055"] ;
444 -> 445 ;
446 [label="mse = 0.078\nsamples = 307\nvalue = 0.085"] ;
444 -> 446 ;
447 [label="age <= 38.5\nmse = 0.03\nsamples = 1048\nvalue = 0.031"] ;
431 -> 447 ;
448 [label="class of worker_ Local government <= 0.5\nmse = 0.009\nsamples = 558\nvalue = 0.009"] ;
447 -> 448 ;
449 [label="mse = 0.0\nsamples = 284\nvalue = 0.0"] ;
448 -> 449 ;
450 [label="mse = 0.018\nsamples = 274\nvalue = 0.018"] ;
448 -> 450 ;
451 [label="mse = 0.054\nsamples = 490\nvalue = 0.057"] ;
447 -> 451 ;
452 [label="major occupation code_ Executive admin and managerial <= 0.5\nmse = 0.15\nsamples = 1369\nvalue = 0.184"] ;
362 -> 452 ;
453 [label="num persons worked for employer <= 4.5\nmse = 0.126\nsamples = 1104\nvalue = 0.149"] ;
452 -> 453 ;
454 [label="mse = 0.082\nsamples = 486\nvalue = 0.091"] ;
453 -> 454 ;
455 [label="age <= 43.5\nmse = 0.156\nsamples = 618\nvalue = 0.194"] ;
453 -> 455 ;
456 [label="mse = 0.113\nsamples = 340\nvalue = 0.129"] ;
455 -> 456 ;
457 [label="mse = 0.199\nsamples = 278\nvalue = 0.273"] ;
455 -> 457 ;
458 [label="mse = 0.222\nsamples = 265\nvalue = 0.332"] ;
452 -> 458 ;
459 [label="sex_ Female <= 0.5\nmse = 0.234\nsamples = 8082\nvalue = 0.374"] ;
211 -> 459 ;
460 [label="capital losses <= 1894.5\nmse = 0.25\nsamples = 4669\nvalue = 0.504"] ;
459 -> 460 ;
461 [label="major occupation code_ Executive admin and managerial <= 0.5\nmse = 0.249\nsamples = 4317\nvalue = 0.474"] ;
460 -> 461 ;
462 [label="major occupation code_ Professional specialty <= 0.5\nmse = 0.244\nsamples = 3200\nvalue = 0.422"] ;
461 -> 462 ;
463 [label="major occupation code_ Sales <= 0.5\nmse = 0.223\nsamples = 2193\nvalue = 0.334"] ;
462 -> 463 ;
464 [label="num persons worked for employer <= 5.5\nmse = 0.204\nsamples = 1567\nvalue = 0.287"] ;
463 -> 464 ;
465 [label="dividends from stocks <= 948.0\nmse = 0.154\nsamples = 750\nvalue = 0.191"] ;
464 -> 465 ;
466 [label="Unknown 1 <= 1586.66\nmse = 0.122\nsamples = 500\nvalue = 0.142"] ;
465 -> 466 ;
467 [label="mse = 0.106\nsamples = 250\nvalue = 0.12"] ;
466 -> 467 ;
468 [label="mse = 0.137\nsamples = 250\nvalue = 0.164"] ;
466 -> 468 ;
469 [label="mse = 0.205\nsamples = 250\nvalue = 0.288"] ;
465 -> 469 ;
470 [label="major occupation code_ Precision production craft & repair <= 0.5\nmse = 0.234\nsamples = 817\nvalue = 0.375"] ;
464 -> 470 ;
471 [label="dividends from stocks <= 357.5\nmse = 0.222\nsamples = 533\nvalue = 0.334"] ;
470 -> 471 ;
472 [label="mse = 0.204\nsamples = 260\nvalue = 0.285"] ;
471 -> 472 ;
473 [label="mse = 0.236\nsamples = 273\nvalue = 0.381"] ;
471 -> 473 ;
474 [label="mse = 0.248\nsamples = 284\nvalue = 0.451"] ;
470 -> 474 ;
475 [label="dividends from stocks <= 875.0\nmse = 0.248\nsamples = 626\nvalue = 0.454"] ;
463 -> 475 ;
476 [label="mse = 0.238\nsamples = 365\nvalue = 0.392"] ;
475 -> 476 ;
477 [label="mse = 0.248\nsamples = 261\nvalue = 0.54"] ;
475 -> 477 ;
478 [label="dividends from stocks <= 305.0\nmse = 0.238\nsamples = 1007\nvalue = 0.612"] ;
462 -> 478 ;
479 [label="mse = 0.25\nsamples = 394\nvalue = 0.51"] ;
478 -> 479 ;
480 [label="age <= 43.5\nmse = 0.219\nsamples = 613\nvalue = 0.677"] ;
478 -> 480 ;
481 [label="mse = 0.24\nsamples = 266\nvalue = 0.598"] ;
480 -> 481 ;
482 [label="mse = 0.193\nsamples = 347\nvalue = 0.738"] ;
480 -> 482 ;
483 [label="num persons worked for employer <= 2.5\nmse = 0.235\nsamples = 1117\nvalue = 0.623"] ;
461 -> 483 ;
484 [label="mse = 0.248\nsamples = 283\nvalue = 0.459"] ;
483 -> 484 ;
485 [label="dividends from stocks <= 527.5\nmse = 0.218\nsamples = 834\nvalue = 0.679"] ;
483 -> 485 ;
486 [label="mse = 0.241\nsamples = 423\nvalue = 0.593"] ;
485 -> 486 ;
487 [label="mse = 0.179\nsamples = 411\nvalue = 0.766"] ;
485 -> 487 ;
488 [label="mse = 0.111\nsamples = 352\nvalue = 0.872"] ;
460 -> 488 ;
489 [label="dividends from stocks <= 3970.5\nmse = 0.158\nsamples = 3413\nvalue = 0.197"] ;
459 -> 489 ;
490 [label="major occupation code_ Adm support including clerical <= 0.5\nmse = 0.142\nsamples = 3105\nvalue = 0.171"] ;
489 -> 490 ;
491 [label="education_ High school graduate <= 0.5\nmse = 0.166\nsamples = 2314\nvalue = 0.211"] ;
490 -> 491 ;
492 [label="num persons worked for employer <= 4.5\nmse = 0.185\nsamples = 1896\nvalue = 0.245"] ;
491 -> 492 ;
493 [label="dividends from stocks <= 995.5\nmse = 0.146\nsamples = 943\nvalue = 0.178"] ;
492 -> 493 ;
494 [label="Unknown 1 <= 1656.425\nmse = 0.127\nsamples = 639\nvalue = 0.149"] ;
493 -> 494 ;
495 [label="mse = 0.111\nsamples = 329\nvalue = 0.128"] ;
494 -> 495 ;
496 [label="mse = 0.142\nsamples = 310\nvalue = 0.171"] ;
494 -> 496 ;
497 [label="mse = 0.182\nsamples = 304\nvalue = 0.24"] ;
493 -> 497 ;
498 [label="dividends from stocks <= 993.5\nmse = 0.214\nsamples = 953\nvalue = 0.311"] ;
492 -> 498 ;
499 [label="age <= 38.5\nmse = 0.196\nsamples = 681\nvalue = 0.267"] ;
498 -> 499 ;
500 [label="mse = 0.166\nsamples = 262\nvalue = 0.21"] ;
499 -> 500 ;
501 [label="mse = 0.211\nsamples = 419\nvalue = 0.303"] ;
499 -> 501 ;
502 [label="mse = 0.243\nsamples = 272\nvalue = 0.419"] ;
498 -> 502 ;
503 [label="mse = 0.054\nsamples = 418\nvalue = 0.057"] ;
491 -> 503 ;
504 [label="dividends from stocks <= 496.5\nmse = 0.053\nsamples = 791\nvalue = 0.056"] ;
490 -> 504 ;
505 [label="mse = 0.022\nsamples = 435\nvalue = 0.023"] ;
504 -> 505 ;
506 [label="mse = 0.086\nsamples = 356\nvalue = 0.096"] ;
504 -> 506 ;
507 [label="mse = 0.248\nsamples = 308\nvalue = 0.458"] ;
489 -> 507 ;
508 [label="capital gains <= 10041.0\nmse = 0.2\nsamples = 2735\nvalue = 0.724"] ;
0 -> 508 [labeldistance=2.5, labelangle=-45, headlabel="False"] ;
509 [label="tax filer stat_ Joint both under 65 <= 0.5\nmse = 0.248\nsamples = 889\nvalue = 0.458"] ;
508 -> 509 ;
510 [label="mse = 0.17\nsamples = 280\nvalue = 0.218"] ;
509 -> 510 ;
511 [label="full or part time employment stat_ Full-time schedules <= 0.5\nmse = 0.245\nsamples = 609\nvalue = 0.568"] ;
509 -> 511 ;
512 [label="mse = 0.249\nsamples = 345\nvalue = 0.533"] ;
511 -> 512 ;
513 [label="mse = 0.237\nsamples = 264\nvalue = 0.614"] ;
511 -> 513 ;
514 [label="sex_ Female <= 0.5\nmse = 0.126\nsamples = 1846\nvalue = 0.852"] ;
508 -> 514 ;
515 [label="capital gains <= 14682.0\nmse = 0.082\nsamples = 1433\nvalue = 0.91"] ;
514 -> 515 ;
516 [label="mse = 0.171\nsamples = 264\nvalue = 0.78"] ;
515 -> 516 ;
517 [label="dividends from stocks <= 1.5\nmse = 0.057\nsamples = 1169\nvalue = 0.939"] ;
515 -> 517 ;
518 [label="Unknown 1 <= 1749.165\nmse = 0.078\nsamples = 537\nvalue = 0.914"] ;
517 -> 518 ;
519 [label="mse = 0.093\nsamples = 281\nvalue = 0.897"] ;
518 -> 519 ;
520 [label="mse = 0.062\nsamples = 256\nvalue = 0.934"] ;
518 -> 520 ;
521 [label="capital gains <= 15427.5\nmse = 0.038\nsamples = 632\nvalue = 0.96"] ;
517 -> 521 ;
522 [label="mse = 0.054\nsamples = 330\nvalue = 0.942"] ;
521 -> 522 ;
523 [label="mse = 0.019\nsamples = 302\nvalue = 0.98"] ;
521 -> 523 ;
524 [label="mse = 0.227\nsamples = 413\nvalue = 0.651"] ;
514 -> 524 ;
}